<?xml version="1.0"?>
<opencv_storage>
<cascade>
  <stageType>BOOST</stageType>
  <featureType>HAAR</featureType>
  <height>133</height>
  <width>100</width>
  <stageParams>
    <boostType>GAB</boostType>
    <minHitRate>9.9500000476837158e-01</minHitRate>
    <maxFalseAlarm>5.0000000000000000e-01</maxFalseAlarm>
    <weightTrimRate>9.4999999999999996e-01</weightTrimRate>
    <maxDepth>1</maxDepth>
    <maxWeakCount>100</maxWeakCount></stageParams>
  <featureParams>
    <maxCatCount>0</maxCatCount>
    <featSize>1</featSize>
    <mode>ALL</mode></featureParams>
  <stageNum>4</stageNum>
  <stages>
    <!-- stage 0 -->
    <_>
      <maxWeakCount>1</maxWeakCount>
      <stageThreshold>1.</stageThreshold>
      <weakClassifiers>
        <_>
          <internalNodes>
            0 -1 0 5.9127550572156906e-02</internalNodes>
          <leafValues>
            -1. 1.</leafValues></_></weakClassifiers></_>
    <!-- stage 1 -->
    <_>
      <maxWeakCount>1</maxWeakCount>
      <stageThreshold>1.</stageThreshold>
      <weakClassifiers>
        <_>
          <internalNodes>
            0 -1 2 8.5886135697364807e-02</internalNodes>
          <leafValues>
            -1. 1.</leafValues></_></weakClassifiers></_>
    <!-- stage 2 -->
    <_>
      <maxWeakCount>2</maxWeakCount>
      <stageThreshold>-3.6796104162931442e-02</stageThreshold>
      <weakClassifiers>
        <_>
          <internalNodes>
            0 -1 3 -2.8666682541370392e-02</internalNodes>
          <leafValues>
            1. -9.9335545301437378e-01</leafValues></_>
        <_>
          <internalNodes>
            0 -1 4 9.3204164877533913e-03</internalNodes>
          <leafValues>
            -9.9337732791900635e-01 9.5655936002731323e-01</leafValues></_></weakClassifiers></_>
    <!-- stage 3 -->
    <_>
      <maxWeakCount>2</maxWeakCount>
      <stageThreshold>-2.0032186806201935e-01</stageThreshold>
      <weakClassifiers>
        <_>
          <internalNodes>
            0 -1 5 1.6533355414867401e-01</internalNodes>
          <leafValues>
            -9.8019802570343018e-01 1.</leafValues></_>
        <_>
          <internalNodes>
            0 -1 1 2.8841882012784481e-03</internalNodes>
          <leafValues>
            -9.9333024024963379e-01 7.7987617254257202e-01</leafValues></_></weakClassifiers></_></stages>
  <features>
    <_>
      <rects>
        <_>
          0 0 53 30 -1.</_>
        <_>
          0 15 53 15 2.</_></rects>
      <tilted>0</tilted></_>
    <_>
      <rects>
        <_>
          0 28 27 3 -1.</_>
        <_>
          9 29 9 1 9.</_></rects>
      <tilted>0</tilted></_>
    <_>
      <rects>
        <_>
          0 69 96 64 -1.</_>
        <_>
          0 85 96 32 2.</_></rects>
      <tilted>0</tilted></_>
    <_>
      <rects>
        <_>
          9 53 44 31 -1.</_>
        <_>
          20 53 22 31 2.</_></rects>
      <tilted>0</tilted></_>
    <_>
      <rects>
        <_>
          42 75 21 32 -1.</_>
        <_>
          49 75 7 32 3.</_></rects>
      <tilted>0</tilted></_>
    <_>
      <rects>
        <_>
          58 1 42 51 -1.</_>
        <_>
          72 18 14 17 9.</_></rects>
      <tilted>0</tilted></_></features></cascade>
</opencv_storage>
